digraph Tree {
node [shape=box, style="filled, rounded", color="black", fontname=helvetica] ;
edge [fontname=helvetica] ;
0 [label="203448_s_at <= 1120.775\nentropy = 0.795\nsamples = 16\nvalue = [19, 6]", fillcolor="#e58139ae"] ;
1 [label="entropy = 0.0\nsamples = 5\nvalue = [0, 6]", fillcolor="#399de5ff"] ;
0 -> 1 [labeldistance=2.5, labelangle=45, headlabel="True"] ;
2 [label="entropy = 0.0\nsamples = 11\nvalue = [19, 0]", fillcolor="#e58139ff"] ;
0 -> 2 [labeldistance=2.5, labelangle=-45, headlabel="False"] ;
}