digraph Tree {
node [shape=box, style="filled, rounded", color="black", fontname=helvetica] ;
edge [fontname=helvetica] ;
0 [label="209800_at <= 0.5\nentropy = 1.5819\nsamples = 162\nvalue = [59, 52, 51]", fillcolor="#e5813910"] ;
1 [label="229118_at <= 0.5\nentropy = 0.9962\nsamples = 110\nvalue = [59, 51, 0]", fillcolor="#e5813923"] ;
0 -> 1 [labeldistance=2.5, labelangle=45, headlabel="True"] ;
2 [label="231156_at <= 0.5\nentropy = 0.971\nsamples = 80\nvalue = [32, 48, 0]", fillcolor="#39e58155"] ;
1 -> 2 ;
3 [label="234082_at <= 0.5\nentropy = 0.8537\nsamples = 61\nvalue = [17, 44, 0]", fillcolor="#39e5819c"] ;
2 -> 3 ;
4 [label="227626_at <= 0.5\nentropy = 0.6801\nsamples = 50\nvalue = [9, 41, 0]", fillcolor="#39e581c7"] ;
3 -> 4 ;
5 [label="1558045_a_at <= 0.5\nentropy = 0.496\nsamples = 46\nvalue = [5, 41, 0]", fillcolor="#39e581e0"] ;
4 -> 5 ;
6 [label="213265_at <= 0.5\nentropy = 0.2762\nsamples = 42\nvalue = [2, 40, 0]", fillcolor="#39e581f2"] ;
5 -> 6 ;
7 [label="entropy = 0.0\nsamples = 36\nvalue = [0, 36, 0]", fillcolor="#39e581ff"] ;
6 -> 7 ;
8 [label="entropy = 0.9183\nsamples = 6\nvalue = [2, 4, 0]", fillcolor="#39e5817f"] ;
6 -> 8 ;
9 [label="entropy = 0.8113\nsamples = 4\nvalue = [3, 1, 0]", fillcolor="#e58139aa"] ;
5 -> 9 ;
10 [label="entropy = 0.0\nsamples = 4\nvalue = [4, 0, 0]", fillcolor="#e58139ff"] ;
4 -> 10 ;
11 [label="entropy = 0.8454\nsamples = 11\nvalue = [8, 3, 0]", fillcolor="#e581399f"] ;
3 -> 11 ;
12 [label="214355_x_at <= 0.5\nentropy = 0.7425\nsamples = 19\nvalue = [15, 4, 0]", fillcolor="#e58139bb"] ;
2 -> 12 ;
13 [label="entropy = 0.3373\nsamples = 16\nvalue = [15, 1, 0]", fillcolor="#e58139ee"] ;
12 -> 13 ;
14 [label="entropy = 0.0\nsamples = 3\nvalue = [0, 3, 0]", fillcolor="#39e581ff"] ;
12 -> 14 ;
15 [label="206373_at <= 0.5\nentropy = 0.469\nsamples = 30\nvalue = [27, 3, 0]", fillcolor="#e58139e3"] ;
1 -> 15 ;
16 [label="entropy = 0.0\nsamples = 27\nvalue = [27, 0, 0]", fillcolor="#e58139ff"] ;
15 -> 16 ;
17 [label="entropy = 0.0\nsamples = 3\nvalue = [0, 3, 0]", fillcolor="#39e581ff"] ;
15 -> 17 ;
18 [label="208078_s_at <= 0.5\nentropy = 0.1371\nsamples = 52\nvalue = [0, 1, 51]", fillcolor="#8139e5fa"] ;
0 -> 18 [labeldistance=2.5, labelangle=-45, headlabel="False"] ;
19 [label="entropy = 0.0\nsamples = 49\nvalue = [0, 0, 49]", fillcolor="#8139e5ff"] ;
18 -> 19 ;
20 [label="entropy = 0.9183\nsamples = 3\nvalue = [0, 1, 2]", fillcolor="#8139e57f"] ;
18 -> 20 ;
}