digraph Tree {
node [shape=box, style="filled, rounded", color="black", fontname=helvetica] ;
edge [fontname=helvetica] ;
0 [label="214246_x_at <= 12.7822\ngini = 0.7492\nsamples = 31\nvalue = [7, 8, 8, 8]", fillcolor="#47e53900"] ;
1 [label="200012_x_at <= 15.0144\ngini = 0.6612\nsamples = 22\nvalue = [6, 8, 0, 8]", fillcolor="#47e53900"] ;
0 -> 1 [labeldistance=2.5, labelangle=45, headlabel="True"] ;
2 [label="gini = 0.0\nsamples = 8\nvalue = [0, 0, 0, 8]", fillcolor="#d739e5ff"] ;
1 -> 2 ;
3 [label="240666_at <= 4.8762\ngini = 0.4898\nsamples = 14\nvalue = [6, 8, 0, 0]", fillcolor="#47e53940"] ;
1 -> 3 ;
4 [label="gini = 0.0\nsamples = 6\nvalue = [6, 0, 0, 0]", fillcolor="#e58139ff"] ;
3 -> 4 ;
5 [label="gini = 0.0\nsamples = 8\nvalue = [0, 8, 0, 0]", fillcolor="#47e539ff"] ;
3 -> 5 ;
6 [label="gini = 0.1975\nsamples = 9\nvalue = [1, 0, 8, 0]", fillcolor="#399de5df"] ;
0 -> 6 [labeldistance=2.5, labelangle=-45, headlabel="False"] ;
}